digraph Tree {
node [shape=box] ;
0 [label="X[1] <= 0.5\nentropy = 0.963\nsamples = 981\nvalue = [601, 380]"] ;
1 [label="X[0] <= 2.5\nentropy = 0.838\nsamples = 355\nvalue = [95, 260]"] ;
0 -> 1 [labeldistance=2.5, labelangle=45, headlabel="True"] ;
2 [label="X[0] <= 1.5\nentropy = 0.374\nsamples = 194\nvalue = [14, 180]"] ;
1 -> 2 ;
3 [label="X[3] <= 1.5\nentropy = 0.26\nsamples = 114\nvalue = [5, 109]"] ;
2 -> 3 ;
4 [label="X[3] <= 0.5\nentropy = 0.197\nsamples = 98\nvalue = [3, 95]"] ;
3 -> 4 ;
5 [label="X[5] <= 2.5\nentropy = 0.242\nsamples = 75\nvalue = [3, 72]"] ;
4 -> 5 ;
6 [label="X[5] <= 1.5\nentropy = 0.264\nsamples = 67\nvalue = [3, 64]"] ;
5 -> 6 ;
7 [label="X[4] <= 0.5\nentropy = 0.201\nsamples = 64\nvalue = [2, 62]"] ;
6 -> 7 ;
8 [label="entropy = 0.0\nsamples = 30\nvalue = [0, 30]"] ;
7 -> 8 ;
9 [label="X[2] <= 0.5\nentropy = 0.323\nsamples = 34\nvalue = [2, 32]"] ;
7 -> 9 ;
10 [label="X[6] <= 0.5\nentropy = 0.503\nsamples = 18\nvalue = [2, 16]"] ;
9 -> 10 ;
11 [label="entropy = 0.0\nsamples = 6\nvalue = [0, 6]"] ;
10 -> 11 ;
12 [label="X[5] <= 0.5\nentropy = 0.65\nsamples = 12\nvalue = [2, 10]"] ;
10 -> 12 ;
13 [label="entropy = 0.811\nsamples = 8\nvalue = [2, 6]"] ;
12 -> 13 ;
14 [label="entropy = 0.0\nsamples = 4\nvalue = [0, 4]"] ;
12 -> 14 ;
15 [label="entropy = 0.0\nsamples = 16\nvalue = [0, 16]"] ;
9 -> 15 ;
16 [label="X[6] <= 0.5\nentropy = 0.918\nsamples = 3\nvalue = [1, 2]"] ;
6 -> 16 ;
17 [label="entropy = 0.0\nsamples = 1\nvalue = [1, 0]"] ;
16 -> 17 ;
18 [label="entropy = 0.0\nsamples = 2\nvalue = [0, 2]"] ;
16 -> 18 ;
19 [label="entropy = 0.0\nsamples = 8\nvalue = [0, 8]"] ;
5 -> 19 ;
20 [label="entropy = 0.0\nsamples = 23\nvalue = [0, 23]"] ;
4 -> 20 ;
21 [label="X[5] <= 0.5\nentropy = 0.544\nsamples = 16\nvalue = [2, 14]"] ;
3 -> 21 ;
22 [label="entropy = 0.0\nsamples = 7\nvalue = [0, 7]"] ;
21 -> 22 ;
23 [label="X[2] <= 0.5\nentropy = 0.764\nsamples = 9\nvalue = [2, 7]"] ;
21 -> 23 ;
24 [label="entropy = 0.0\nsamples = 4\nvalue = [0, 4]"] ;
23 -> 24 ;
25 [label="X[2] <= 1.5\nentropy = 0.971\nsamples = 5\nvalue = [2, 3]"] ;
23 -> 25 ;
26 [label="entropy = 0.0\nsamples = 2\nvalue = [2, 0]"] ;
25 -> 26 ;
27 [label="entropy = 0.0\nsamples = 3\nvalue = [0, 3]"] ;
25 -> 27 ;
28 [label="X[3] <= 1.5\nentropy = 0.507\nsamples = 80\nvalue = [9, 71]"] ;
2 -> 28 ;
29 [label="X[4] <= 0.5\nentropy = 0.575\nsamples = 66\nvalue = [9, 57]"] ;
28 -> 29 ;
30 [label="X[5] <= 2.0\nentropy = 0.61\nsamples = 60\nvalue = [9, 51]"] ;
29 -> 30 ;
31 [label="X[2] <= 1.5\nentropy = 0.573\nsamples = 59\nvalue = [8, 51]"] ;
30 -> 31 ;
32 [label="X[2] <= 0.5\nentropy = 0.598\nsamples = 55\nvalue = [8, 47]"] ;
31 -> 32 ;
33 [label="X[3] <= 0.5\nentropy = 0.503\nsamples = 36\nvalue = [4, 32]"] ;
32 -> 33 ;
34 [label="X[5] <= 0.5\nentropy = 0.567\nsamples = 30\nvalue = [4, 26]"] ;
33 -> 34 ;
35 [label="entropy = 0.439\nsamples = 22\nvalue = [2, 20]"] ;
34 -> 35 ;
36 [label="X[6] <= 2.0\nentropy = 0.811\nsamples = 8\nvalue = [2, 6]"] ;
34 -> 36 ;
37 [label="entropy = 0.0\nsamples = 2\nvalue = [0, 2]"] ;
36 -> 37 ;
38 [label="entropy = 0.918\nsamples = 6\nvalue = [2, 4]"] ;
36 -> 38 ;
39 [label="entropy = 0.0\nsamples = 6\nvalue = [0, 6]"] ;
33 -> 39 ;
40 [label="X[5] <= 0.5\nentropy = 0.742\nsamples = 19\nvalue = [4, 15]"] ;
32 -> 40 ;
41 [label="X[3] <= 0.5\nentropy = 0.89\nsamples = 13\nvalue = [4, 9]"] ;
40 -> 41 ;
42 [label="entropy = 0.918\nsamples = 9\nvalue = [3, 6]"] ;
41 -> 42 ;
43 [label="entropy = 0.811\nsamples = 4\nvalue = [1, 3]"] ;
41 -> 43 ;
44 [label="entropy = 0.0\nsamples = 6\nvalue = [0, 6]"] ;
40 -> 44 ;
45 [label="entropy = 0.0\nsamples = 4\nvalue = [0, 4]"] ;
31 -> 45 ;
46 [label="entropy = 0.0\nsamples = 1\nvalue = [1, 0]"] ;
30 -> 46 ;
47 [label="entropy = 0.0\nsamples = 6\nvalue = [0, 6]"] ;
29 -> 47 ;
48 [label="entropy = 0.0\nsamples = 14\nvalue = [0, 14]"] ;
28 -> 48 ;
49 [label="X[6] <= 2.0\nentropy = 1.0\nsamples = 161\nvalue = [81, 80]"] ;
1 -> 49 ;
50 [label="X[2] <= 3.5\nentropy = 0.286\nsamples = 20\nvalue = [19, 1]"] ;
49 -> 50 ;
51 [label="entropy = 0.0\nsamples = 10\nvalue = [10, 0]"] ;
50 -> 51 ;
52 [label="X[2] <= 4.5\nentropy = 0.469\nsamples = 10\nvalue = [9, 1]"] ;
50 -> 52 ;
53 [label="entropy = 0.722\nsamples = 5\nvalue = [4, 1]"] ;
52 -> 53 ;
54 [label="entropy = 0.0\nsamples = 5\nvalue = [5, 0]"] ;
52 -> 54 ;
55 [label="X[4] <= 0.5\nentropy = 0.989\nsamples = 141\nvalue = [62, 79]"] ;
49 -> 55 ;
56 [label="X[2] <= 1.5\nentropy = 0.999\nsamples = 81\nvalue = [42, 39]"] ;
55 -> 56 ;
57 [label="X[5] <= 2.5\nentropy = 1.0\nsamples = 77\nvalue = [38, 39]"] ;
56 -> 57 ;
58 [label="X[5] <= 0.5\nentropy = 0.998\nsamples = 68\nvalue = [32, 36]"] ;
57 -> 58 ;
59 [label="X[3] <= 0.5\nentropy = 0.993\nsamples = 31\nvalue = [17, 14]"] ;
58 -> 59 ;
60 [label="X[2] <= 0.5\nentropy = 0.964\nsamples = 18\nvalue = [11, 7]"] ;
59 -> 60 ;
61 [label="entropy = 0.98\nsamples = 12\nvalue = [7, 5]"] ;
60 -> 61 ;
62 [label="entropy = 0.918\nsamples = 6\nvalue = [4, 2]"] ;
60 -> 62 ;
63 [label="X[2] <= 0.5\nentropy = 0.996\nsamples = 13\nvalue = [6, 7]"] ;
59 -> 63 ;
64 [label="X[3] <= 1.5\nentropy = 1.0\nsamples = 6\nvalue = [3, 3]"] ;
63 -> 64 ;
65 [label="entropy = 0.0\nsamples = 1\nvalue = [0, 1]"] ;
64 -> 65 ;
66 [label="entropy = 0.971\nsamples = 5\nvalue = [3, 2]"] ;
64 -> 66 ;
67 [label="X[3] <= 1.5\nentropy = 0.985\nsamples = 7\nvalue = [3, 4]"] ;
63 -> 67 ;
68 [label="entropy = 1.0\nsamples = 6\nvalue = [3, 3]"] ;
67 -> 68 ;
69 [label="entropy = 0.0\nsamples = 1\nvalue = [0, 1]"] ;
67 -> 69 ;
70 [label="X[3] <= 1.5\nentropy = 0.974\nsamples = 37\nvalue = [15, 22]"] ;
58 -> 70 ;
71 [label="X[2] <= 0.5\nentropy = 0.985\nsamples = 35\nvalue = [15, 20]"] ;
70 -> 71 ;
72 [label="X[5] <= 1.5\nentropy = 0.932\nsamples = 23\nvalue = [8, 15]"] ;
71 -> 72 ;
73 [label="X[3] <= 0.5\nentropy = 0.946\nsamples = 22\nvalue = [8, 14]"] ;
72 -> 73 ;
74 [label="entropy = 0.964\nsamples = 18\nvalue = [7, 11]"] ;
73 -> 74 ;
75 [label="entropy = 0.811\nsamples = 4\nvalue = [1, 3]"] ;
73 -> 75 ;
76 [label="entropy = 0.0\nsamples = 1\nvalue = [0, 1]"] ;
72 -> 76 ;
77 [label="X[3] <= 0.5\nentropy = 0.98\nsamples = 12\nvalue = [7, 5]"] ;
71 -> 77 ;
78 [label="entropy = 0.918\nsamples = 6\nvalue = [4, 2]"] ;
77 -> 78 ;
79 [label="entropy = 1.0\nsamples = 6\nvalue = [3, 3]"] ;
77 -> 79 ;
80 [label="entropy = 0.0\nsamples = 2\nvalue = [0, 2]"] ;
70 -> 80 ;
81 [label="X[3] <= 1.0\nentropy = 0.918\nsamples = 9\nvalue = [6, 3]"] ;
57 -> 81 ;
82 [label="X[2] <= 0.5\nentropy = 0.985\nsamples = 7\nvalue = [4, 3]"] ;
81 -> 82 ;
83 [label="entropy = 0.918\nsamples = 6\nvalue = [4, 2]"] ;
82 -> 83 ;
84 [label="entropy = 0.0\nsamples = 1\nvalue = [0, 1]"] ;
82 -> 84 ;
85 [label="entropy = 0.0\nsamples = 2\nvalue = [2, 0]"] ;
81 -> 85 ;
86 [label="entropy = 0.0\nsamples = 4\nvalue = [4, 0]"] ;
56 -> 86 ;
87 [label="X[5] <= 0.5\nentropy = 0.918\nsamples = 60\nvalue = [20, 40]"] ;
55 -> 87 ;
88 [label="X[3] <= 0.5\nentropy = 0.954\nsamples = 8\nvalue = [5, 3]"] ;
87 -> 88 ;
89 [label="X[4] <= 1.5\nentropy = 1.0\nsamples = 6\nvalue = [3, 3]"] ;
88 -> 89 ;
90 [label="entropy = 0.0\nsamples = 2\nvalue = [0, 2]"] ;
89 -> 90 ;
91 [label="entropy = 0.811\nsamples = 4\nvalue = [3, 1]"] ;
89 -> 91 ;
92 [label="entropy = 0.0\nsamples = 2\nvalue = [2, 0]"] ;
88 -> 92 ;
93 [label="X[2] <= 1.5\nentropy = 0.867\nsamples = 52\nvalue = [15, 37]"] ;
87 -> 93 ;
94 [label="X[2] <= 0.5\nentropy = 0.889\nsamples = 49\nvalue = [15, 34]"] ;
93 -> 94 ;
95 [label="X[5] <= 2.0\nentropy = 0.839\nsamples = 41\nvalue = [11, 30]"] ;
94 -> 95 ;
96 [label="X[3] <= 1.5\nentropy = 0.954\nsamples = 16\nvalue = [6, 10]"] ;
95 -> 96 ;
97 [label="X[3] <= 0.5\nentropy = 0.985\nsamples = 14\nvalue = [6, 8]"] ;
96 -> 97 ;
98 [label="X[4] <= 1.5\nentropy = 0.961\nsamples = 13\nvalue = [5, 8]"] ;
97 -> 98 ;
99 [label="entropy = 0.918\nsamples = 3\nvalue = [1, 2]"] ;
98 -> 99 ;
100 [label="entropy = 0.971\nsamples = 10\nvalue = [4, 6]"] ;
98 -> 100 ;
101 [label="entropy = 0.0\nsamples = 1\nvalue = [1, 0]"] ;
97 -> 101 ;
102 [label="entropy = 0.0\nsamples = 2\nvalue = [0, 2]"] ;
96 -> 102 ;
103 [label="X[3] <= 1.0\nentropy = 0.722\nsamples = 25\nvalue = [5, 20]"] ;
95 -> 103 ;
104 [label="X[4] <= 1.5\nentropy = 0.684\nsamples = 22\nvalue = [4, 18]"] ;
103 -> 104 ;
105 [label="entropy = 0.0\nsamples = 2\nvalue = [0, 2]"] ;
104 -> 105 ;
106 [label="entropy = 0.722\nsamples = 20\nvalue = [4, 16]"] ;
104 -> 106 ;
107 [label="entropy = 0.918\nsamples = 3\nvalue = [1, 2]"] ;
103 -> 107 ;
108 [label="X[4] <= 1.5\nentropy = 1.0\nsamples = 8\nvalue = [4, 4]"] ;
94 -> 108 ;
109 [label="X[5] <= 2.0\nentropy = 0.918\nsamples = 6\nvalue = [4, 2]"] ;
108 -> 109 ;
110 [label="X[3] <= 0.5\nentropy = 1.0\nsamples = 4\nvalue = [2, 2]"] ;
109 -> 110 ;
111 [label="entropy = 0.918\nsamples = 3\nvalue = [1, 2]"] ;
110 -> 111 ;
112 [label="entropy = 0.0\nsamples = 1\nvalue = [1, 0]"] ;
110 -> 112 ;
113 [label="entropy = 0.0\nsamples = 2\nvalue = [2, 0]"] ;
109 -> 113 ;
114 [label="entropy = 0.0\nsamples = 2\nvalue = [0, 2]"] ;
108 -> 114 ;
115 [label="entropy = 0.0\nsamples = 3\nvalue = [0, 3]"] ;
93 -> 115 ;
116 [label="X[0] <= 1.5\nentropy = 0.705\nsamples = 626\nvalue = [506, 120]"] ;
0 -> 116 [labeldistance=2.5, labelangle=-45, headlabel="False"] ;
117 [label="X[5] <= 1.5\nentropy = 0.916\nsamples = 133\nvalue = [89, 44]"] ;
116 -> 117 ;
118 [label="X[2] <= 0.5\nentropy = 0.957\nsamples = 103\nvalue = [64, 39]"] ;
117 -> 118 ;
119 [label="X[3] <= 1.5\nentropy = 0.881\nsamples = 60\nvalue = [42, 18]"] ;
118 -> 119 ;
120 [label="X[5] <= 0.5\nentropy = 0.856\nsamples = 57\nvalue = [41, 16]"] ;
119 -> 120 ;
121 [label="X[3] <= 0.5\nentropy = 0.904\nsamples = 50\nvalue = [34, 16]"] ;
120 -> 121 ;
122 [label="X[4] <= 0.5\nentropy = 0.932\nsamples = 46\nvalue = [30, 16]"] ;
121 -> 122 ;
123 [label="X[6] <= 2.5\nentropy = 0.863\nsamples = 28\nvalue = [20, 8]"] ;
122 -> 123 ;
124 [label="X[6] <= 1.5\nentropy = 0.877\nsamples = 27\nvalue = [19, 8]"] ;
123 -> 124 ;
125 [label="entropy = 0.887\nsamples = 23\nvalue = [16, 7]"] ;
124 -> 125 ;
126 [label="entropy = 0.811\nsamples = 4\nvalue = [3, 1]"] ;
124 -> 126 ;
127 [label="entropy = 0.0\nsamples = 1\nvalue = [1, 0]"] ;
123 -> 127 ;
128 [label="X[6] <= 0.5\nentropy = 0.991\nsamples = 18\nvalue = [10, 8]"] ;
122 -> 128 ;
129 [label="entropy = 1.0\nsamples = 2\nvalue = [1, 1]"] ;
128 -> 129 ;
130 [label="entropy = 0.989\nsamples = 16\nvalue = [9, 7]"] ;
128 -> 130 ;
131 [label="entropy = 0.0\nsamples = 4\nvalue = [4, 0]"] ;
121 -> 131 ;
132 [label="entropy = 0.0\nsamples = 7\nvalue = [7, 0]"] ;
120 -> 132 ;
133 [label="X[5] <= 0.5\nentropy = 0.918\nsamples = 3\nvalue = [1, 2]"] ;
119 -> 133 ;
134 [label="entropy = 0.0\nsamples = 1\nvalue = [1, 0]"] ;
133 -> 134 ;
135 [label="entropy = 0.0\nsamples = 2\nvalue = [0, 2]"] ;
133 -> 135 ;
136 [label="X[2] <= 2.5\nentropy = 1.0\nsamples = 43\nvalue = [22, 21]"] ;
118 -> 136 ;
137 [label="X[5] <= 0.5\nentropy = 1.0\nsamples = 42\nvalue = [21, 21]"] ;
136 -> 137 ;
138 [label="X[4] <= 1.5\nentropy = 0.995\nsamples = 35\nvalue = [19, 16]"] ;
137 -> 138 ;
139 [label="X[2] <= 1.5\nentropy = 0.998\nsamples = 34\nvalue = [18, 16]"] ;
138 -> 139 ;
140 [label="X[4] <= 0.5\nentropy = 0.994\nsamples = 33\nvalue = [18, 15]"] ;
139 -> 140 ;
141 [label="X[3] <= 0.5\nentropy = 0.964\nsamples = 18\nvalue = [11, 7]"] ;
140 -> 141 ;
142 [label="entropy = 0.918\nsamples = 12\nvalue = [8, 4]"] ;
141 -> 142 ;
143 [label="X[6] <= 0.5\nentropy = 1.0\nsamples = 6\nvalue = [3, 3]"] ;
141 -> 143 ;
144 [label="entropy = 1.0\nsamples = 2\nvalue = [1, 1]"] ;
143 -> 144 ;
145 [label="entropy = 1.0\nsamples = 4\nvalue = [2, 2]"] ;
143 -> 145 ;
146 [label="X[6] <= 0.5\nentropy = 0.997\nsamples = 15\nvalue = [7, 8]"] ;
140 -> 146 ;
147 [label="X[3] <= 0.5\nentropy = 0.811\nsamples = 4\nvalue = [3, 1]"] ;
146 -> 147 ;
148 [label="entropy = 0.0\nsamples = 2\nvalue = [2, 0]"] ;
147 -> 148 ;
149 [label="entropy = 1.0\nsamples = 2\nvalue = [1, 1]"] ;
147 -> 149 ;
150 [label="X[3] <= 0.5\nentropy = 0.946\nsamples = 11\nvalue = [4, 7]"] ;
146 -> 150 ;
151 [label="entropy = 0.918\nsamples = 9\nvalue = [3, 6]"] ;
150 -> 151 ;
152 [label="entropy = 1.0\nsamples = 2\nvalue = [1, 1]"] ;
150 -> 152 ;
153 [label="entropy = 0.0\nsamples = 1\nvalue = [0, 1]"] ;
139 -> 153 ;
154 [label="entropy = 0.0\nsamples = 1\nvalue = [1, 0]"] ;
138 -> 154 ;
155 [label="X[3] <= 1.0\nentropy = 0.863\nsamples = 7\nvalue = [2, 5]"] ;
137 -> 155 ;
156 [label="X[6] <= 0.5\nentropy = 0.971\nsamples = 5\nvalue = [2, 3]"] ;
155 -> 156 ;
157 [label="entropy = 0.0\nsamples = 1\nvalue = [1, 0]"] ;
156 -> 157 ;
158 [label="X[4] <= 0.5\nentropy = 0.811\nsamples = 4\nvalue = [1, 3]"] ;
156 -> 158 ;
159 [label="entropy = 1.0\nsamples = 2\nvalue = [1, 1]"] ;
158 -> 159 ;
160 [label="entropy = 0.0\nsamples = 2\nvalue = [0, 2]"] ;
158 -> 160 ;
161 [label="entropy = 0.0\nsamples = 2\nvalue = [0, 2]"] ;
155 -> 161 ;
162 [label="entropy = 0.0\nsamples = 1\nvalue = [1, 0]"] ;
136 -> 162 ;
163 [label="X[5] <= 2.5\nentropy = 0.65\nsamples = 30\nvalue = [25, 5]"] ;
117 -> 163 ;
164 [label="entropy = 0.0\nsamples = 12\nvalue = [12, 0]"] ;
163 -> 164 ;
165 [label="X[6] <= 0.5\nentropy = 0.852\nsamples = 18\nvalue = [13, 5]"] ;
163 -> 165 ;
166 [label="entropy = 0.0\nsamples = 2\nvalue = [2, 0]"] ;
165 -> 166 ;
167 [label="X[6] <= 1.5\nentropy = 0.896\nsamples = 16\nvalue = [11, 5]"] ;
165 -> 167 ;
168 [label="X[4] <= 0.5\nentropy = 0.94\nsamples = 14\nvalue = [9, 5]"] ;
167 -> 168 ;
169 [label="entropy = 0.881\nsamples = 10\nvalue = [7, 3]"] ;
168 -> 169 ;
170 [label="entropy = 1.0\nsamples = 4\nvalue = [2, 2]"] ;
168 -> 170 ;
171 [label="entropy = 0.0\nsamples = 2\nvalue = [2, 0]"] ;
167 -> 171 ;
172 [label="X[3] <= 0.5\nentropy = 0.62\nsamples = 493\nvalue = [417, 76]"] ;
116 -> 172 ;
173 [label="X[5] <= 1.5\nentropy = 0.566\nsamples = 413\nvalue = [358, 55]"] ;
172 -> 173 ;
174 [label="X[0] <= 2.5\nentropy = 0.625\nsamples = 301\nvalue = [254, 47]"] ;
173 -> 174 ;
175 [label="X[4] <= 0.5\nentropy = 0.433\nsamples = 90\nvalue = [82, 8]"] ;
174 -> 175 ;
176 [label="X[2] <= 1.5\nentropy = 0.334\nsamples = 81\nvalue = [76, 5]"] ;
175 -> 176 ;
177 [label="X[5] <= 0.5\nentropy = 0.344\nsamples = 78\nvalue = [73, 5]"] ;
176 -> 177 ;
178 [label="X[6] <= 2.0\nentropy = 0.376\nsamples = 55\nvalue = [51, 4]"] ;
177 -> 178 ;
179 [label="X[2] <= 0.5\nentropy = 0.469\nsamples = 10\nvalue = [9, 1]"] ;
178 -> 179 ;
180 [label="entropy = 0.0\nsamples = 3\nvalue = [3, 0]"] ;
179 -> 180 ;
181 [label="entropy = 0.592\nsamples = 7\nvalue = [6, 1]"] ;
179 -> 181 ;
182 [label="X[2] <= 0.5\nentropy = 0.353\nsamples = 45\nvalue = [42, 3]"] ;
178 -> 182 ;
183 [label="entropy = 0.378\nsamples = 41\nvalue = [38, 3]"] ;
182 -> 183 ;
184 [label="entropy = 0.0\nsamples = 4\nvalue = [4, 0]"] ;
182 -> 184 ;
185 [label="X[2] <= 0.5\nentropy = 0.258\nsamples = 23\nvalue = [22, 1]"] ;
177 -> 185 ;
186 [label="X[6] <= 2.0\nentropy = 0.286\nsamples = 20\nvalue = [19, 1]"] ;
185 -> 186 ;
187 [label="entropy = 0.0\nsamples = 1\nvalue = [1, 0]"] ;
186 -> 187 ;
188 [label="entropy = 0.297\nsamples = 19\nvalue = [18, 1]"] ;
186 -> 188 ;
189 [label="entropy = 0.0\nsamples = 3\nvalue = [3, 0]"] ;
185 -> 189 ;
190 [label="entropy = 0.0\nsamples = 3\nvalue = [3, 0]"] ;
176 -> 190 ;
191 [label="X[2] <= 0.5\nentropy = 0.918\nsamples = 9\nvalue = [6, 3]"] ;
175 -> 191 ;
192 [label="X[4] <= 1.5\nentropy = 0.985\nsamples = 7\nvalue = [4, 3]"] ;
191 -> 192 ;
193 [label="X[5] <= 0.5\nentropy = 1.0\nsamples = 6\nvalue = [3, 3]"] ;
192 -> 193 ;
194 [label="entropy = 1.0\nsamples = 4\nvalue = [2, 2]"] ;
193 -> 194 ;
195 [label="entropy = 1.0\nsamples = 2\nvalue = [1, 1]"] ;
193 -> 195 ;
196 [label="entropy = 0.0\nsamples = 1\nvalue = [1, 0]"] ;
192 -> 196 ;
197 [label="entropy = 0.0\nsamples = 2\nvalue = [2, 0]"] ;
191 -> 197 ;
198 [label="X[6] <= 1.5\nentropy = 0.691\nsamples = 211\nvalue = [172, 39]"] ;
174 -> 198 ;
199 [label="entropy = 0.811\nsamples = 4\nvalue = [1, 3]"] ;
198 -> 199 ;
200 [label="X[2] <= 1.5\nentropy = 0.667\nsamples = 207\nvalue = [171, 36]"] ;
198 -> 200 ;
201 [label="X[5] <= 0.5\nentropy = 0.684\nsamples = 198\nvalue = [162, 36]"] ;
200 -> 201 ;
202 [label="X[6] <= 2.5\nentropy = 0.634\nsamples = 100\nvalue = [84, 16]"] ;
201 -> 202 ;
203 [label="entropy = 0.0\nsamples = 2\nvalue = [2, 0]"] ;
202 -> 203 ;
204 [label="X[4] <= 0.5\nentropy = 0.642\nsamples = 98\nvalue = [82, 16]"] ;
202 -> 204 ;
205 [label="X[2] <= 0.5\nentropy = 0.655\nsamples = 83\nvalue = [69, 14]"] ;
204 -> 205 ;
206 [label="entropy = 0.655\nsamples = 77\nvalue = [64, 13]"] ;
205 -> 206 ;
207 [label="entropy = 0.65\nsamples = 6\nvalue = [5, 1]"] ;
205 -> 207 ;
208 [label="X[2] <= 0.5\nentropy = 0.567\nsamples = 15\nvalue = [13, 2]"] ;
204 -> 208 ;
209 [label="X[4] <= 1.5\nentropy = 0.592\nsamples = 14\nvalue = [12, 2]"] ;
208 -> 209 ;
210 [label="entropy = 0.544\nsamples = 8\nvalue = [7, 1]"] ;
209 -> 210 ;
211 [label="entropy = 0.65\nsamples = 6\nvalue = [5, 1]"] ;
209 -> 211 ;
212 [label="entropy = 0.0\nsamples = 1\nvalue = [1, 0]"] ;
208 -> 212 ;
213 [label="X[6] <= 2.5\nentropy = 0.73\nsamples = 98\nvalue = [78, 20]"] ;
201 -> 213 ;
214 [label="entropy = 0.0\nsamples = 1\nvalue = [0, 1]"] ;
213 -> 214 ;
215 [label="X[4] <= 1.5\nentropy = 0.714\nsamples = 97\nvalue = [78, 19]"] ;
213 -> 215 ;
216 [label="X[4] <= 0.5\nentropy = 0.726\nsamples = 94\nvalue = [75, 19]"] ;
215 -> 216 ;
217 [label="X[2] <= 0.5\nentropy = 0.669\nsamples = 80\nvalue = [66, 14]"] ;
216 -> 217 ;
218 [label="entropy = 0.687\nsamples = 71\nvalue = [58, 13]"] ;
217 -> 218 ;
219 [label="entropy = 0.503\nsamples = 9\nvalue = [8, 1]"] ;
217 -> 219 ;
220 [label="X[2] <= 0.5\nentropy = 0.94\nsamples = 14\nvalue = [9, 5]"] ;
216 -> 220 ;
221 [label="entropy = 0.89\nsamples = 13\nvalue = [9, 4]"] ;
220 -> 221 ;
222 [label="entropy = 0.0\nsamples = 1\nvalue = [0, 1]"] ;
220 -> 222 ;
223 [label="entropy = 0.0\nsamples = 3\nvalue = [3, 0]"] ;
215 -> 223 ;
224 [label="entropy = 0.0\nsamples = 9\nvalue = [9, 0]"] ;
200 -> 224 ;
225 [label="X[6] <= 1.5\nentropy = 0.371\nsamples = 112\nvalue = [104, 8]"] ;
173 -> 225 ;
226 [label="X[5] <= 2.5\nentropy = 1.0\nsamples = 4\nvalue = [2, 2]"] ;
225 -> 226 ;
227 [label="entropy = 0.0\nsamples = 1\nvalue = [1, 0]"] ;
226 -> 227 ;
228 [label="entropy = 0.918\nsamples = 3\nvalue = [1, 2]"] ;
226 -> 228 ;
229 [label="X[4] <= 1.5\nentropy = 0.31\nsamples = 108\nvalue = [102, 6]"] ;
225 -> 229 ;
230 [label="X[0] <= 2.5\nentropy = 0.174\nsamples = 77\nvalue = [75, 2]"] ;
229 -> 230 ;
231 [label="X[4] <= 0.5\nentropy = 0.503\nsamples = 9\nvalue = [8, 1]"] ;
230 -> 231 ;
232 [label="entropy = 0.0\nsamples = 7\nvalue = [7, 0]"] ;
231 -> 232 ;
233 [label="entropy = 1.0\nsamples = 2\nvalue = [1, 1]"] ;
231 -> 233 ;
234 [label="X[4] <= 0.5\nentropy = 0.111\nsamples = 68\nvalue = [67, 1]"] ;
230 -> 234 ;
235 [label="X[2] <= 0.5\nentropy = 0.144\nsamples = 49\nvalue = [48, 1]"] ;
234 -> 235 ;
236 [label="X[5] <= 2.5\nentropy = 0.154\nsamples = 45\nvalue = [44, 1]"] ;
235 -> 236 ;
237 [label="entropy = 0.0\nsamples = 3\nvalue = [3, 0]"] ;
236 -> 237 ;
238 [label="entropy = 0.162\nsamples = 42\nvalue = [41, 1]"] ;
236 -> 238 ;
239 [label="entropy = 0.0\nsamples = 4\nvalue = [4, 0]"] ;
235 -> 239 ;
240 [label="entropy = 0.0\nsamples = 19\nvalue = [19, 0]"] ;
234 -> 240 ;
241 [label="X[2] <= 1.5\nentropy = 0.555\nsamples = 31\nvalue = [27, 4]"] ;
229 -> 241 ;
242 [label="X[2] <= 0.5\nentropy = 0.469\nsamples = 30\nvalue = [27, 3]"] ;
241 -> 242 ;
243 [label="X[5] <= 2.5\nentropy = 0.529\nsamples = 25\nvalue = [22, 3]"] ;
242 -> 243 ;
244 [label="entropy = 0.0\nsamples = 3\nvalue = [3, 0]"] ;
243 -> 244 ;
245 [label="entropy = 0.575\nsamples = 22\nvalue = [19, 3]"] ;
243 -> 245 ;
246 [label="entropy = 0.0\nsamples = 5\nvalue = [5, 0]"] ;
242 -> 246 ;
247 [label="entropy = 0.0\nsamples = 1\nvalue = [0, 1]"] ;
241 -> 247 ;
248 [label="X[2] <= 3.5\nentropy = 0.83\nsamples = 80\nvalue = [59, 21]"] ;
172 -> 248 ;
249 [label="X[5] <= 0.5\nentropy = 0.929\nsamples = 61\nvalue = [40, 21]"] ;
248 -> 249 ;
250 [label="X[2] <= 2.0\nentropy = 0.544\nsamples = 24\nvalue = [21, 3]"] ;
249 -> 250 ;
251 [label="X[3] <= 1.5\nentropy = 0.426\nsamples = 23\nvalue = [21, 2]"] ;
250 -> 251 ;
252 [label="X[4] <= 0.5\nentropy = 0.592\nsamples = 14\nvalue = [12, 2]"] ;
251 -> 252 ;
253 [label="X[6] <= 2.0\nentropy = 0.439\nsamples = 11\nvalue = [10, 1]"] ;
252 -> 253 ;
254 [label="X[2] <= 0.5\nentropy = 0.65\nsamples = 6\nvalue = [5, 1]"] ;
253 -> 254 ;
255 [label="entropy = 0.0\nsamples = 1\nvalue = [1, 0]"] ;
254 -> 255 ;
256 [label="entropy = 0.722\nsamples = 5\nvalue = [4, 1]"] ;
254 -> 256 ;
257 [label="entropy = 0.0\nsamples = 5\nvalue = [5, 0]"] ;
253 -> 257 ;
258 [label="X[2] <= 0.5\nentropy = 0.918\nsamples = 3\nvalue = [2, 1]"] ;
252 -> 258 ;
259 [label="entropy = 0.0\nsamples = 1\nvalue = [0, 1]"] ;
258 -> 259 ;
260 [label="entropy = 0.0\nsamples = 2\nvalue = [2, 0]"] ;
258 -> 260 ;
261 [label="entropy = 0.0\nsamples = 9\nvalue = [9, 0]"] ;
251 -> 261 ;
262 [label="entropy = 0.0\nsamples = 1\nvalue = [0, 1]"] ;
250 -> 262 ;
263 [label="X[2] <= 2.5\nentropy = 0.999\nsamples = 37\nvalue = [19, 18]"] ;
249 -> 263 ;
264 [label="X[2] <= 0.5\nentropy = 0.989\nsamples = 32\nvalue = [14, 18]"] ;
263 -> 264 ;
265 [label="X[3] <= 1.5\nentropy = 0.592\nsamples = 7\nvalue = [1, 6]"] ;
264 -> 265 ;
266 [label="entropy = 0.0\nsamples = 3\nvalue = [0, 3]"] ;
265 -> 266 ;
267 [label="X[0] <= 2.5\nentropy = 0.811\nsamples = 4\nvalue = [1, 3]"] ;
265 -> 267 ;
268 [label="entropy = 0.0\nsamples = 2\nvalue = [0, 2]"] ;
267 -> 268 ;
269 [label="entropy = 1.0\nsamples = 2\nvalue = [1, 1]"] ;
267 -> 269 ;
270 [label="X[3] <= 1.5\nentropy = 0.999\nsamples = 25\nvalue = [13, 12]"] ;
264 -> 270 ;
271 [label="X[0] <= 2.5\nentropy = 0.971\nsamples = 20\nvalue = [8, 12]"] ;
270 -> 271 ;
272 [label="X[2] <= 1.5\nentropy = 0.811\nsamples = 8\nvalue = [2, 6]"] ;
271 -> 272 ;
273 [label="X[6] <= 2.0\nentropy = 0.65\nsamples = 6\nvalue = [1, 5]"] ;
272 -> 273 ;
274 [label="entropy = 0.811\nsamples = 4\nvalue = [1, 3]"] ;
273 -> 274 ;
275 [label="entropy = 0.0\nsamples = 2\nvalue = [0, 2]"] ;
273 -> 275 ;
276 [label="X[6] <= 2.0\nentropy = 1.0\nsamples = 2\nvalue = [1, 1]"] ;
272 -> 276 ;
277 [label="entropy = 0.0\nsamples = 1\nvalue = [0, 1]"] ;
276 -> 277 ;
278 [label="entropy = 0.0\nsamples = 1\nvalue = [1, 0]"] ;
276 -> 278 ;
279 [label="X[4] <= 0.5\nentropy = 1.0\nsamples = 12\nvalue = [6, 6]"] ;
271 -> 279 ;
280 [label="X[5] <= 2.0\nentropy = 0.863\nsamples = 7\nvalue = [5, 2]"] ;
279 -> 280 ;
281 [label="entropy = 0.918\nsamples = 6\nvalue = [4, 2]"] ;
280 -> 281 ;
282 [label="entropy = 0.0\nsamples = 1\nvalue = [1, 0]"] ;
280 -> 282 ;
283 [label="X[5] <= 2.0\nentropy = 0.722\nsamples = 5\nvalue = [1, 4]"] ;
279 -> 283 ;
284 [label="entropy = 1.0\nsamples = 2\nvalue = [1, 1]"] ;
283 -> 284 ;
285 [label="entropy = 0.0\nsamples = 3\nvalue = [0, 3]"] ;
283 -> 285 ;
286 [label="entropy = 0.0\nsamples = 5\nvalue = [5, 0]"] ;
270 -> 286 ;
287 [label="entropy = 0.0\nsamples = 5\nvalue = [5, 0]"] ;
263 -> 287 ;
288 [label="entropy = 0.0\nsamples = 19\nvalue = [19, 0]"] ;
248 -> 288 ;
}
